digraph Tree {
node [shape=box, style="rounded", color="black", fontname="helvetica"] ;
edge [fontname="helvetica"] ;
0 [label="4 <= -0.0\nsquared_error = 0.2\nsamples = 159\nvalue = 1.5"] ;
1 [label="339 <= 0.0\nsquared_error = 0.0\nsamples = 48\nvalue = 1.0"] ;
0 -> 1 [labeldistance=2.5, labelangle=45, headlabel="True"] ;
2 [label="squared_error = 0.0\nsamples = 47\nvalue = 1.0"] ;
1 -> 2 ;
3 [label="squared_error = 0.0\nsamples = 1\nvalue = 2.0"] ;
1 -> 3 ;
4 [label="237 <= 0.0\nsquared_error = 0.2\nsamples = 111\nvalue = 1.7"] ;
0 -> 4 [labeldistance=2.5, labelangle=-45, headlabel="False"] ;
5 [label="6 <= -0.0\nsquared_error = 0.1\nsamples = 90\nvalue = 1.8"] ;
4 -> 5 ;
6 [label="45 <= 0.0\nsquared_error = 0.1\nsamples = 84\nvalue = 1.9"] ;
5 -> 6 ;
7 [label="245 <= -0.0\nsquared_error = 0.1\nsamples = 81\nvalue = 1.9"] ;
6 -> 7 ;
8 [label="squared_error = 0.0\nsamples = 3\nvalue = 1.0"] ;
7 -> 8 ;
9 [label="264 <= -0.0\nsquared_error = 0.0\nsamples = 78\nvalue = 2.0"] ;
7 -> 9 ;
10 [label="squared_error = 0.0\nsamples = 3\nvalue = 1.0"] ;
9 -> 10 ;
11 [label="2 <= 0.5\nsquared_error = 0.0\nsamples = 75\nvalue = 2.0"] ;
9 -> 11 ;
12 [label="squared_error = 0.0\nsamples = 73\nvalue = 2.0"] ;
11 -> 12 ;
13 [label="squared_error = 0.0\nsamples = 2\nvalue = 1.0"] ;
11 -> 13 ;
14 [label="squared_error = 0.0\nsamples = 3\nvalue = 1.0"] ;
6 -> 14 ;
15 [label="squared_error = 0.0\nsamples = 6\nvalue = 1.0"] ;
5 -> 15 ;
16 [label="351 <= 0.0\nsquared_error = 0.2\nsamples = 21\nvalue = 1.2"] ;
4 -> 16 ;
17 [label="squared_error = 0.0\nsamples = 12\nvalue = 1.0"] ;
16 -> 17 ;
18 [label="286 <= 0.0\nsquared_error = 0.1\nsamples = 9\nvalue = 1.8"] ;
16 -> 18 ;
19 [label="squared_error = 0.0\nsamples = 7\nvalue = 2.0"] ;
18 -> 19 ;
20 [label="squared_error = 0.0\nsamples = 2\nvalue = 1.0"] ;
18 -> 20 ;
}